[
    {
        "reroll": {
            "n": 9,
            "actor": {
                "n": 9,
                "learning_rate": 0.001,
                "beta1": 0.9,
                "beta2": 0.999,
                "epsilon": 1e-08,
                "t": 3333260,
                "weights": [
                    1.0555300641098524,
                    0.7344476277838204,
                    0.08931326373993383,
                    -8.753753413066006,
                    -9.41422408615785,
                    -9.790580330724106,
                    -5.527704795919248,
                    3.3884727214284327,
                    4.048943921960075
                ],
                "bias": 3.6696272798680027,
                "weight_m": [
                    -0.00020463681646004018,
                    0.0016699810891539872,
                    0.0018746179056140279,
                    0.000992445915001881,
                    -4.8968507948651425e-05,
                    -6.0259862707825994e-05,
                    -0.002656205407155981,
                    -6.892773201329749e-07,
                    4.8614322697328615e-05
                ],
                "weight_v": [
                    1.4123068252959057e-05,
                    8.050033866259484e-05,
                    6.742684500380643e-05,
                    5.4420710235433636e-06,
                    2.7375451786200212e-08,
                    3.087883082956303e-06,
                    0.0003532404931844416,
                    5.9039839654546076e-06,
                    1.093520705205591e-07
                ],
                "bias_m": 0.0028249724380977567,
                "bias_v": 0.0005295564595403986
            },
            "critic": {
                "n": 9,
                "learning_rate": 0.0001,
                "beta1": 0.9,
                "beta2": 0.999,
                "epsilon": 1e-08,
                "t": 3333260,
                "weights": [
                    0.08401769646672232,
                    0.4713138698687469,
                    -0.49480028349656036,
                    0.4850470982129997,
                    -0.03780508140923533,
                    -0.04170013657464049,
                    -0.03425288676571747,
                    -0.03984748765673146,
                    -0.026522141997377065
                ],
                "bias": -0.9914541559656523,
                "weight_m": [
                    -0.021801010692157854,
                    0.06647050161259674,
                    0.08827151230475459,
                    0.02995126018793661,
                    0.023653317250619137,
                    0.04233697406226497,
                    0.05162289180632289,
                    -0.0023236131500896603,
                    0.05960386408057319
                ],
                "weight_v": [
                    0.0005874290377299493,
                    0.0025618851586987944,
                    0.0025380065037573724,
                    0.00014355641356898863,
                    0.0017139117902429735,
                    0.0035080279631224554,
                    0.0033446965657251177,
                    0.0029155010707563557,
                    0.0059766980134856006
                ],
                "bias_m": 0.22355217685280535,
                "bias_v": 0.019010029755459613
            },
            "trajectory": []
        },
        "bank": {
            "n": 15,
            "actor": {
                "n": 15,
                "learning_rate": 0.001,
                "beta1": 0.9,
                "beta2": 0.999,
                "epsilon": 1e-08,
                "t": 2755304,
                "weights": [
                    0.2301654602343283,
                    -0.0927014506697775,
                    -0.589056041818536,
                    8.781121676603375,
                    2.908393307521103,
                    0.38243449008036595,
                    0.05582717225061876,
                    -0.034400188589159775,
                    0.04771896078474301,
                    -0.0022340454824226618,
                    5.129157244379503,
                    5.445309014635838,
                    4.416915290719343,
                    -2.293484898581066,
                    -6.071338230737788
                ],
                "bias": 0.4998835956965242,
                "weight_m": [
                    8.140712317906105e-06,
                    -0.001066203729330215,
                    -0.0010743444416481214,
                    5.712442742307673e-05,
                    1.4836295876157383e-05,
                    0.005358060614385811,
                    0.0,
                    0.0,
                    0.0,
                    0.0,
                    1.0038471059592576e-05,
                    5.678400292639688e-05,
                    0.0003871265517316285,
                    0.005675866013042856,
                    -0.0007717544243746642
                ],
                "weight_v": [
                    3.795678803224234e-05,
                    0.00010702039584290457,
                    8.853406115591454e-05,
                    1.7344022855710876e-06,
                    4.244059713467149e-08,
                    0.0008690326476768957,
                    0.0,
                    0.0,
                    0.0,
                    0.0,
                    7.640775046040526e-07,
                    3.232091806918989e-06,
                    5.364530444413843e-06,
                    0.0008557635895796258,
                    3.908358341332325e-06
                ],
                "bias_m": 0.005358060614385811,
                "bias_v": 0.0008690326476768957
            },
            "critic": {
                "n": 15,
                "learning_rate": 0.0001,
                "beta1": 0.9,
                "beta2": 0.999,
                "epsilon": 1e-08,
                "t": 2755304,
                "weights": [
                    0.1267287560175008,
                    0.4413151711579036,
                    -0.455375669325008,
                    0.49182802247986374,
                    0.1996778087478664,
                    -0.39824003693290655,
                    0.012250225492571268,
                    0.05475699567174617,
                    0.02511522949379351,
                    0.15683128220240192,
                    -0.1998907886930337,
                    -0.2273968635121149,
                    -0.23411717496706208,
                    -0.2297008787705648,
                    -0.21675113143358268
                ],
                "bias": -0.404431114144977,
                "weight_m": [
                    -0.02332455141900112,
                    0.06005282042360641,
                    0.08337737184260753,
                    0.017301461624997985,
                    0.0018867814678770719,
                    0.25510378157290836,
                    0.0,
                    0.0,
                    0.0,
                    0.0,
                    0.026822646921540162,
                    0.02936934574280513,
                    0.08713510291710262,
                    0.01854224130031253,
                    0.09323444469114792
                ],
                "weight_v": [
                    0.0007026756175222103,
                    0.0028215416866936628,
                    0.0026409163468889725,
                    8.356642837930388e-05,
                    1.0415771415120565e-06,
                    0.019968648700172995,
                    0.0,
                    0.0,
                    0.0,
                    0.0,
                    0.0006105802161310223,
                    0.00216388062314954,
                    0.004483816357533606,
                    0.004391303588054411,
                    0.00831906791530436
                ],
                "bias_m": 0.25510378157290836,
                "bias_v": 0.019968648700172995
            },
            "trajectory": []
        }
    },
    {
        "reroll": {
            "n": 9,
            "actor": {
                "n": 9,
                "learning_rate": 0.001,
                "beta1": 0.9,
                "beta2": 0.999,
                "epsilon": 1e-08,
                "t": 3213765,
                "weights": [
                    0.346408538913891,
                    0.3573166350273828,
                    0.5217676033403519,
                    -6.446059857364773,
                    -9.292044150355343,
                    -9.234678876951849,
                    -5.769059725085014,
                    2.783638413179826,
                    4.818229647085243
                ],
                "bias": 3.451283881803118,
                "weight_m": [
                    4.3934213658638053e-05,
                    6.3085873781224e-05,
                    1.9151660122585968e-05,
                    -2.1776650610277953e-05,
                    0.00014499832981539347,
                    0.0001988461166749118,
                    0.0006090738649662939,
                    -8.44489463047541e-05,
                    -1.4177090920469363e-05
                ],
                "weight_v": [
                    1.4358633163402839e-05,
                    4.4358002726663545e-05,
                    5.7828303207343906e-05,
                    2.6217952964428834e-06,
                    4.9108338491951826e-06,
                    1.590154897018362e-05,
                    0.00019993929171137567,
                    1.875821338568085e-07,
                    6.193296834778359e-10
                ],
                "bias_m": 0.00030198122918839596,
                "bias_v": 0.00032759711267530995
            },
            "critic": {
                "n": 9,
                "learning_rate": 0.0001,
                "beta1": 0.9,
                "beta2": 0.999,
                "epsilon": 1e-08,
                "t": 3213765,
                "weights": [
                    0.00695690556950917,
                    0.5692185083170775,
                    -0.5412266434534426,
                    0.4584684943554098,
                    -0.023943458608917504,
                    -0.027484023735818618,
                    -0.021603099600476496,
                    -0.02187754361886509,
                    -0.01179106896996776
                ],
                "bias": -0.9685229061115356,
                "weight_m": [
                    -0.006791263192909364,
                    -0.10061654236397465,
                    -0.0938252791710653,
                    -0.010623104765595179,
                    -0.05018084789158773,
                    -0.05960531235204629,
                    -0.012141166509888177,
                    -0.055063415590099044,
                    -0.07229327273554507
                ],
                "weight_v": [
                    0.0006386491326294799,
                    0.0023119006883827557,
                    0.0030318112841770314,
                    0.00011266950155583078,
                    0.00220184359241186,
                    0.003673748654329654,
                    0.002427028756021206,
                    0.004234721714548054,
                    0.006258478428056666
                ],
                "bias_m": -0.2560160996124731,
                "bias_v": 0.019918247186941636
            },
            "trajectory": []
        },
        "bank": {
            "n": 15,
            "actor": {
                "n": 15,
                "learning_rate": 0.001,
                "beta1": 0.9,
                "beta2": 0.999,
                "epsilon": 1e-08,
                "t": 2675978,
                "weights": [
                    -0.9360379390339688,
                    -0.05140036200015793,
                    0.39197682701322445,
                    7.21710174458589,
                    2.0605228545201104,
                    -0.3457739393387942,
                    -0.002549849414193765,
                    -0.012155758308276728,
                    -0.011417826701819102,
                    0.10698135514381792,
                    5.541991612032028,
                    5.690432619769257,
                    6.080477396286835,
                    -2.54897770894878,
                    -5.173725717657559
                ],
                "bias": -0.22557224635944492,
                "weight_m": [
                    0.00037592713483929687,
                    0.0005736058586337506,
                    0.00019767872379445375,
                    -0.00010561449719408486,
                    -3.6124544799304304e-05,
                    -0.007315689548333844,
                    0.0,
                    0.0,
                    0.0,
                    0.0,
                    -2.0679092360533578e-06,
                    -0.00018731107397928243,
                    -0.00018088820745701536,
                    -0.00732902632433957,
                    0.000383603966678077
                ],
                "weight_v": [
                    9.595001531391435e-06,
                    3.555644678515072e-05,
                    3.851096026775055e-05,
                    8.746497033508663e-07,
                    9.656210327717032e-09,
                    0.00030461753439966674,
                    0.0,
                    0.0,
                    0.0,
                    0.0,
                    4.5196005897582346e-08,
                    2.957069199221722e-08,
                    2.0803215664214864e-05,
                    0.00027629910229301545,
                    7.440449744546625e-06
                ],
                "bias_m": -0.007315689548333844,
                "bias_v": 0.00030461753439966674
            },
            "critic": {
                "n": 15,
                "learning_rate": 0.0001,
                "beta1": 0.9,
                "beta2": 0.999,
                "epsilon": 1e-08,
                "t": 2675978,
                "weights": [
                    0.09384394447905488,
                    0.48156153788105377,
                    -0.45432117043905784,
                    0.4722137121803694,
                    0.23462097745758498,
                    -0.4497543575626096,
                    -0.024284428469709726,
                    0.0022817483876446452,
                    -0.06048531617730335,
                    0.036650332255424606,
                    -0.1325201350984052,
                    -0.14375296940171162,
                    -0.14936864665845806,
                    -0.15023536392074002,
                    -0.1395216185969387
                ],
                "bias": -0.38699345903734717,
                "weight_m": [
                    -0.0018117525874675683,
                    -0.11461995963857873,
                    -0.11280820705111115,
                    -0.007215765776173446,
                    -0.001437975926789082,
                    -0.26361750276121604,
                    0.0,
                    0.0,
                    0.0,
                    0.0,
                    -0.0011613476555408413,
                    -0.061666976176575905,
                    -0.06588833516625399,
                    -0.04113357962088081,
                    -0.09376726414196448
                ],
                "weight_v": [
                    0.0006443093020282651,
                    0.0023284209785417627,
                    0.003099023797381114,
                    7.519272895729558e-05,
                    8.999454656126047e-07,
                    0.018610693330344066,
                    0.0,
                    0.0,
                    0.0,
                    0.0,
                    0.0005247364981566552,
                    0.0024550330998870007,
                    0.004312250755307812,
                    0.004165007033369733,
                    0.007153665943622904
                ],
                "bias_m": -0.26361750276121604,
                "bias_v": 0.018610693330344066
            },
            "trajectory": []
        }
    }
]