[
    {
        "reroll": {
            "n": 9,
            "actor": {
                "n": 9,
                "learning_rate": 0.06,
                "weights": [
                    0.21369039678693127,
                    0.4457709673834298,
                    -0.13667657606537104,
                    -0.6350054980235803,
                    -8.978897560696616,
                    -8.865597252470643,
                    -7.919773831330767,
                    3.7254726899404504,
                    4.625446499858132
                ],
                "bias": 3.9354451409187
            },
            "critic": {
                "n": 9,
                "learning_rate": 0.0001,
                "weights": [
                    0.31978118401076705,
                    0.22990378210297308,
                    -0.24074512729672476,
                    0.22757371578823637,
                    -0.08925467823774501,
                    -0.09380360608028483,
                    -0.09919640979548915,
                    -0.09930713636973888,
                    -0.09290984895207036
                ],
                "bias": -0.8866608903372811
            },
            "trajectory": []
        },
        "bank": {
            "n": 15,
            "actor": {
                "n": 15,
                "learning_rate": 0.06,
                "weights": [
                    -0.19377274539998593,
                    0.3462814496396108,
                    0.4167643767402609,
                    1.0799483751909222,
                    0.06733581154496221,
                    0.04457516455369377,
                    0.028225823448987136,
                    -0.019070365990683538,
                    -0.002758276640198216,
                    0.008562030810526358,
                    3.9838341201374248,
                    3.8972239437634157,
                    4.252782513423192,
                    -4.588701746120339,
                    -7.6486294361617855
                ],
                "bias": -0.012531943010641805
            },
            "critic": {
                "n": 15,
                "learning_rate": 0.0001,
                "weights": [
                    0.34366934780859065,
                    0.2080381012958593,
                    -0.21235082373247843,
                    0.23335544293386914,
                    -0.0752697990174755,
                    -0.4538651025277443,
                    0.11229126166932044,
                    0.09374455310575305,
                    -0.09418183050901136,
                    -0.0362224271633265,
                    -0.0032794588530041485,
                    -0.03762682816233116,
                    -0.04626223704858692,
                    -0.0508732031271439,
                    -0.04456070916326502
                ],
                "bias": -0.47825400268875146
            },
            "trajectory": []
        }
    },
    {
        "reroll": {
            "n": 9,
            "actor": {
                "n": 9,
                "learning_rate": 0.06,
                "weights": [
                    0.31163314991332214,
                    0.04096131917233288,
                    0.07506980394467694,
                    -1.3763286850796306,
                    -8.706244894988721,
                    -8.760490111946101,
                    -6.439885199015595,
                    3.354727550320584,
                    4.241847628134222
                ],
                "bias": 3.0574770004437464
            },
            "critic": {
                "n": 9,
                "learning_rate": 0.0001,
                "weights": [
                    0.27179730145541625,
                    0.27748333140313025,
                    -0.3003834114303443,
                    0.2740301916894676,
                    -0.08603742200212551,
                    -0.09112183554339501,
                    -0.09453517410408525,
                    -0.09643952533611164,
                    -0.09048887848465306
                ],
                "bias": -0.9052732375806614
            },
            "trajectory": []
        },
        "bank": {
            "n": 15,
            "actor": {
                "n": 15,
                "learning_rate": 0.06,
                "weights": [
                    0.04081052331538141,
                    0.45394107516020415,
                    0.18718281598324024,
                    0.8549018502238859,
                    0.033602113681638464,
                    0.2708126895900661,
                    0.13896362409377028,
                    0.04119235613832188,
                    -0.0015760050437464846,
                    -0.08350868018767785,
                    3.647018049827182,
                    4.380010066500322,
                    4.3177927510081915,
                    -5.31487432900032,
                    -6.75596856140342
                ],
                "bias": 0.11070489428714071
            },
            "critic": {
                "n": 15,
                "learning_rate": 0.0001,
                "weights": [
                    0.4154244102472096,
                    0.1378921560444903,
                    -0.1511280139214522,
                    0.28321678921972576,
                    0.037139354828001264,
                    -0.3983084722023859,
                    -0.10773099883305226,
                    -0.053388533472728136,
                    0.049423243468303665,
                    -0.025746680327144614,
                    -0.07180440779208043,
                    -0.104921203202013,
                    -0.11376341493961845,
                    -0.11952315708490178,
                    -0.1151838562353072
                ],
                "bias": -0.48839119327396613
            },
            "trajectory": []
        }
    }
]