[
    {
        "reroll": {
            "n": 9,
            "actor": {
                "n": 9,
                "learning_rate": 0.2,
                "weights": [
                    -1.36748342869371,
                    -0.32292345561149116,
                    1.0386477254417665,
                    -3.255514099499795,
                    -11.438659200681386,
                    -11.11813005764803,
                    -8.377934272577829,
                    3.6794727713367292,
                    4.635308792844616
                ],
                "bias": 5.120449830022867
            },
            "critic": {
                "n": 9,
                "learning_rate": 0.1,
                "weights": [
                    0.3101636993270135,
                    0.2072021787492342,
                    -0.18258250109404983,
                    0.49898733233834247,
                    -0.022248954707371236,
                    -0.015650828841982167,
                    -0.025854151646159635,
                    0.0023011397757343216,
                    -0.003643332800147157
                ],
                "bias": 0.01687044504564073
            },
            "trajectory": []
        },
        "bank": {
            "n": 20,
            "actor": {
                "n": 20,
                "learning_rate": 0.2,
                "weights": [
                    0.3908861028963211,
                    0.7171920879468507,
                    0.3027707744464859,
                    2.6511852013572907,
                    -0.19664304055643644,
                    1.3520465381981883,
                    0.20131975742648303,
                    0.1265499318740519,
                    0.2222402351625768,
                    0.38070324597129324,
                    4.850667962644933,
                    4.470706613310256,
                    5.660793321807454,
                    -3.204117768637715,
                    -11.007567446344432,
                    -3.2635428188028586,
                    2.0111808112736362,
                    2.128510129287816,
                    -0.018859133566599795,
                    -0.4453331149436388
                ],
                "bias": 1.2655722602632902
            },
            "critic": {
                "n": 20,
                "learning_rate": 0.1,
                "weights": [
                    0.3689135276150923,
                    0.14039115144921713,
                    -0.15824507668964397,
                    0.4908187589226956,
                    0.47428352243900224,
                    -0.08181933979973992,
                    0.14250623444388033,
                    -0.019284236295150227,
                    -0.1537736405782255,
                    -0.0966453214554981,
                    -0.005366304729204528,
                    -0.017442960101952405,
                    -0.014529792202107594,
                    -0.019177036464622592,
                    -0.0018377665689395025,
                    0.014506997961434495,
                    -0.005311897122255201,
                    0.013962167411146332,
                    0.029145469723559976,
                    0.006983042783792282
                ],
                "bias": 0.08343331606274336
            },
            "trajectory": []
        }
    },
    {
        "reroll": {
            "n": 9,
            "actor": {
                "n": 9,
                "learning_rate": 0.2,
                "weights": [
                    -2.3448974177579225,
                    -0.9596781538272138,
                    1.123564771845706,
                    -5.865490444105978,
                    -11.66002679640493,
                    -11.44190787564869,
                    -6.351527117384452,
                    3.34660748768369,
                    4.2675585510551395
                ],
                "bias": 5.356019186791846
            },
            "critic": {
                "n": 9,
                "learning_rate": 0.1,
                "weights": [
                    0.298320135256709,
                    0.20344734667250125,
                    -0.21683517413920175,
                    0.43081805293405145,
                    -0.019195302969628722,
                    -0.028859921468173375,
                    -0.03193340422567934,
                    -0.02722700513762227,
                    -0.021442482815945088
                ],
                "bias": 0.005121129839553037
            },
            "trajectory": []
        },
        "bank": {
            "n": 20,
            "actor": {
                "n": 20,
                "learning_rate": 0.2,
                "weights": [
                    0.6975039387509071,
                    0.4124204301085167,
                    -0.003346292916488839,
                    2.7435684774907894,
                    -0.258002687432231,
                    1.1477287275422439,
                    0.17774339170667755,
                    0.17705731483991663,
                    -0.06379374614941594,
                    0.02645546427722887,
                    4.509320432351376,
                    4.850778038327005,
                    5.603961951176265,
                    -3.2760717926977323,
                    -10.521580963197431,
                    -3.0721372292621796,
                    2.7170448567882195,
                    2.214644528881295,
                    0.34726430306257483,
                    0.051984836826899986
                ],
                "bias": 1.0554273812518293
            },
            "critic": {
                "n": 20,
                "learning_rate": 0.1,
                "weights": [
                    0.41579287959147887,
                    0.09909739629352668,
                    -0.0864398993189437,
                    0.43017995777852985,
                    0.43455681722598055,
                    0.05610347944677281,
                    0.1184855735243451,
                    0.055568538898483844,
                    0.03213988946444307,
                    0.03941226216987739,
                    0.035638648678252456,
                    0.029867258003358318,
                    0.008331132474859507,
                    0.004018925665897893,
                    0.011867590959332264,
                    0.04067952120955527,
                    0.03357751083530671,
                    0.0460723655506835,
                    -0.0310091856690696,
                    0.13721442439269294
                ],
                "bias": -0.10987751602590139
            },
            "trajectory": []
        }
    }
]